<?xml version='1.0' encoding='UTF-8'?>
<BIF VERSION="0.3">
  <NETWORK>
    <NAME>UNTITLED</NAME>
    <VARIABLE TYPE="nature">
      <NAME>age_group</NAME>
      <OUTCOME>Joven</OUTCOME>
      <OUTCOME>Mayor</OUTCOME>
      <PROPERTY>weight = None</PROPERTY>
    </VARIABLE>
    <VARIABLE TYPE="nature">
      <NAME>ca</NAME>
      <OUTCOME>0_0</OUTCOME>
      <OUTCOME>1_0</OUTCOME>
      <OUTCOME>2_0</OUTCOME>
      <OUTCOME>3_0</OUTCOME>
      <PROPERTY>weight = None</PROPERTY>
    </VARIABLE>
    <VARIABLE TYPE="nature">
      <NAME>cardiac</NAME>
      <OUTCOME>False</OUTCOME>
      <OUTCOME>True</OUTCOME>
      <PROPERTY>weight = None</PROPERTY>
    </VARIABLE>
    <VARIABLE TYPE="nature">
      <NAME>chol_group</NAME>
      <OUTCOME>alto</OUTCOME>
      <OUTCOME>muy_alto</OUTCOME>
      <OUTCOME>normal</OUTCOME>
      <PROPERTY>weight = None</PROPERTY>
    </VARIABLE>
    <VARIABLE TYPE="nature">
      <NAME>cp</NAME>
      <OUTCOME>1_0</OUTCOME>
      <OUTCOME>2_0</OUTCOME>
      <OUTCOME>3_0</OUTCOME>
      <OUTCOME>4_0</OUTCOME>
      <PROPERTY>weight = None</PROPERTY>
    </VARIABLE>
    <VARIABLE TYPE="nature">
      <NAME>exang</NAME>
      <OUTCOME>0_0</OUTCOME>
      <OUTCOME>1_0</OUTCOME>
      <PROPERTY>weight = None</PROPERTY>
    </VARIABLE>
    <VARIABLE TYPE="nature">
      <NAME>fbs</NAME>
      <OUTCOME>0_0</OUTCOME>
      <OUTCOME>1_0</OUTCOME>
      <PROPERTY>weight = None</PROPERTY>
    </VARIABLE>
    <VARIABLE TYPE="nature">
      <NAME>restecg</NAME>
      <OUTCOME>0_0</OUTCOME>
      <OUTCOME>1_0</OUTCOME>
      <OUTCOME>2_0</OUTCOME>
      <PROPERTY>weight = None</PROPERTY>
    </VARIABLE>
    <VARIABLE TYPE="nature">
      <NAME>sex</NAME>
      <OUTCOME>0_0</OUTCOME>
      <OUTCOME>1_0</OUTCOME>
      <PROPERTY>weight = None</PROPERTY>
    </VARIABLE>
    <VARIABLE TYPE="nature">
      <NAME>slope</NAME>
      <OUTCOME>1_0</OUTCOME>
      <OUTCOME>2_0</OUTCOME>
      <OUTCOME>3_0</OUTCOME>
      <PROPERTY>weight = None</PROPERTY>
    </VARIABLE>
    <VARIABLE TYPE="nature">
      <NAME>thal</NAME>
      <OUTCOME>3_0</OUTCOME>
      <OUTCOME>6_0</OUTCOME>
      <OUTCOME>7_0</OUTCOME>
      <PROPERTY>weight = None</PROPERTY>
    </VARIABLE>
    <VARIABLE TYPE="nature">
      <NAME>trestbps_group</NAME>
      <OUTCOME>crisis</OUTCOME>
      <OUTCOME>elevada</OUTCOME>
      <OUTCOME>normal</OUTCOME>
      <OUTCOME>presion_arterial_nivel_1</OUTCOME>
      <OUTCOME>presion_arterial_nivel_2</OUTCOME>
      <PROPERTY>weight = None</PROPERTY>
    </VARIABLE>
    <DEFINITION>
      <FOR>age_group</FOR>
      <TABLE>0.31835205992509363 0.6816479400749064 </TABLE>
    </DEFINITION>
    <DEFINITION>
      <FOR>ca</FOR>
      <GIVEN>age_group</GIVEN>
      <GIVEN>cardiac</GIVEN>
      <TABLE>0.9166666666666666 0.05 0.03333333333333333 0.0 0.68 0.16 0.04 0.12 0.7159090909090909 0.19318181818181818 0.056818181818181816 0.03409090909090909 0.24468085106382978 0.3617021276595745 0.2553191489361702 0.13829787234042554 </TABLE>
    </DEFINITION>
    <DEFINITION>
      <FOR>cardiac</FOR>
      <GIVEN>age_group</GIVEN>
      <GIVEN>fbs</GIVEN>
      <GIVEN>sex</GIVEN>
      <TABLE>1.0 0.0 0.5818181818181818 0.41818181818181815 0.0 1.0 0.75 0.25 0.7 0.3 0.3402061855670103 0.6597938144329897 0.6 0.4 0.56 0.44 </TABLE>
    </DEFINITION>
    <DEFINITION>
      <FOR>chol_group</FOR>
      <GIVEN>age_group</GIVEN>
      <TABLE>0.35294117647058826 0.4235294117647059 0.2235294117647059 0.3021978021978022 0.5879120879120879 0.10989010989010989 </TABLE>
    </DEFINITION>
    <DEFINITION>
      <FOR>cp</FOR>
      <GIVEN>cardiac</GIVEN>
      <TABLE>0.10135135135135136 0.23648648648648649 0.4189189189189189 0.24324324324324326 0.04201680672268908 0.058823529411764705 0.14285714285714285 0.7563025210084033 </TABLE>
    </DEFINITION>
    <DEFINITION>
      <FOR>exang</FOR>
      <GIVEN>cardiac</GIVEN>
      <GIVEN>cp</GIVEN>
      <TABLE>0.8 0.2 0.9142857142857143 0.08571428571428572 0.8870967741935484 0.11290322580645161 0.7222222222222222 0.2777777777777778 0.8 0.2 0.8571428571428571 0.14285714285714285 0.7647058823529411 0.23529411764705882 0.34444444444444444 0.6555555555555556 </TABLE>
    </DEFINITION>
    <DEFINITION>
      <FOR>fbs</FOR>
      <GIVEN>age_group</GIVEN>
      <TABLE>0.9411764705882353 0.058823529411764705 0.8076923076923077 0.19230769230769232 </TABLE>
    </DEFINITION>
    <DEFINITION>
      <FOR>restecg</FOR>
      <GIVEN>cardiac</GIVEN>
      <TABLE>0.5675675675675675 0.006756756756756757 0.42567567567567566 0.37815126050420167 0.008403361344537815 0.6134453781512605 </TABLE>
    </DEFINITION>
    <DEFINITION>
      <FOR>sex</FOR>
      <TABLE>0.32209737827715357 0.6779026217228464 </TABLE>
    </DEFINITION>
    <DEFINITION>
      <FOR>slope</FOR>
      <GIVEN>cardiac</GIVEN>
      <TABLE>0.6554054054054054 0.2905405405405405 0.05405405405405406 0.2689075630252101 0.6470588235294118 0.08403361344537816 </TABLE>
    </DEFINITION>
    <DEFINITION>
      <FOR>thal</FOR>
      <GIVEN>cardiac</GIVEN>
      <GIVEN>sex</GIVEN>
      <TABLE>0.9696969696969697 0.0 0.030303030303030304 0.6585365853658537 0.06097560975609756 0.2804878048780488 0.45 0.0 0.55 0.24242424242424243 0.08080808080808081 0.6767676767676768 </TABLE>
    </DEFINITION>
    <DEFINITION>
      <FOR>trestbps_group</FOR>
      <GIVEN>age_group</GIVEN>
      <TABLE>0.0 0.25882352941176473 0.32941176470588235 0.25882352941176473 0.15294117647058825 0.027472527472527472 0.24175824175824176 0.15384615384615385 0.2032967032967033 0.37362637362637363 </TABLE>
    </DEFINITION>
  </NETWORK>
</BIF>
