network unknown {
}
variable age {
    type discrete [ 4 ] { 1, 2, 3, 4 };
}
variable ca {
    type discrete [ 4 ] { 0, 1, 2, 3 };
}
variable cp {
    type discrete [ 4 ] { 1, 2, 3, 4 };
}
variable exang {
    type discrete [ 2 ] { 0, 1 };
}
variable heartdis {
    type discrete [ 2 ] { 0, 1 };
}
variable oldpeak {
    type discrete [ 5 ] { 1, 2, 3, 4, 5 };
}
variable sex {
    type discrete [ 2 ] { 0, 1 };
}
variable slope {
    type discrete [ 3 ] { 1, 2, 3 };
}
variable thal {
    type discrete [ 3 ] { 3, 6, 7 };
}
variable thalach {
    type discrete [ 2 ] { 1, 2 };
}
variable trestbps {
    type discrete [ 2 ] { 1, 2 };
}
probability ( age ) {
    table 0.24752475247524752, 0.2508250825082508, 0.24092409240924093, 0.2607260726072607 ;
}
probability ( ca | age ) {
    ( 1 ) 0.88, 0.08, 0.02666666666666667, 0.013333333333333334;
    ( 2 ) 0.631578947368421, 0.23684210526315788, 0.06578947368421052, 0.06578947368421052;
    ( 3 ) 0.4794520547945205, 0.2876712328767123, 0.1917808219178082, 0.0410958904109589;
    ( 4 ) 0.3924050632911392, 0.25316455696202533, 0.21518987341772153, 0.13924050632911392;

}
probability ( cp | exang, heartdis ) {
    ( 0, 0 ) 0.09219858156028368, 0.2695035460992908, 0.4326241134751773, 0.20567375886524822;
    ( 0, 1 ) 0.09523809523809523, 0.12698412698412698, 0.2222222222222222, 0.5555555555555556;
    ( 1, 0 ) 0.13043478260869565, 0.13043478260869565, 0.30434782608695654, 0.43478260869565216;
    ( 1, 1 ) 0.013157894736842105, 0.013157894736842105, 0.05263157894736842, 0.9210526315789473;

}
probability ( exang | thal ) {
    ( 3 ) 0.8095238095238095, 0.19047619047619047;
    ( 6 ) 0.5555555555555556, 0.4444444444444444;
    ( 7 ) 0.49572649572649574, 0.5042735042735043;

}
probability ( heartdis | ca, sex, slope, thal ) {
    ( 0, 0, 1, 3 ) 0.9354838709677419, 0.06451612903225806;
    ( 0, 0, 1, 6 ) 0.5, 0.5;
    ( 0, 0, 1, 7 ) 1.0, 0.0;
    ( 0, 0, 2, 3 ) 0.8461538461538461, 0.15384615384615385;
    ( 0, 0, 2, 6 ) 0.5, 0.5;
    ( 0, 0, 2, 7 ) 0.2, 0.8;
    ( 0, 0, 3, 3 ) 1.0, 0.0;
    ( 0, 0, 3, 6 ) 0.5, 0.5;
    ( 0, 0, 3, 7 ) 0.5, 0.5;
    ( 0, 1, 1, 3 ) 0.9302325581395349, 0.06976744186046512;
    ( 0, 1, 1, 6 ) 1.0, 0.0;
    ( 0, 1, 1, 7 ) 0.6111111111111112, 0.3888888888888889;
    ( 0, 1, 2, 3 ) 0.6428571428571429, 0.35714285714285715;
    ( 0, 1, 2, 6 ) 0.8, 0.2;
    ( 0, 1, 2, 7 ) 0.3333333333333333, 0.6666666666666666;
    ( 0, 1, 3, 3 ) 1.0, 0.0;
    ( 0, 1, 3, 6 ) 0.5, 0.5;
    ( 0, 1, 3, 7 ) 0.25, 0.75;
    ( 1, 0, 1, 3 ) 1.0, 0.0;
    ( 1, 0, 1, 6 ) 0.5, 0.5;
    ( 1, 0, 1, 7 ) 0.5, 0.5;
    ( 1, 0, 2, 3 ) 0.6666666666666666, 0.3333333333333333;
    ( 1, 0, 2, 6 ) 0.5, 0.5;
    ( 1, 0, 2, 7 ) 0.0, 1.0;
    ( 1, 0, 3, 3 ) 0.5, 0.5;
    ( 1, 0, 3, 6 ) 0.5, 0.5;
    ( 1, 0, 3, 7 ) 0.5, 0.5;
    ( 1, 1, 1, 3 ) 0.375, 0.625;
    ( 1, 1, 1, 6 ) 0.5, 0.5;
    ( 1, 1, 1, 7 ) 0.3, 0.7;
    ( 1, 1, 2, 3 ) 0.16666666666666666, 0.8333333333333334;
    ( 1, 1, 2, 6 ) 0.0, 1.0;
    ( 1, 1, 2, 7 ) 0.05, 0.95;
    ( 1, 1, 3, 3 ) 0.5, 0.5;
    ( 1, 1, 3, 6 ) 0.5, 0.5;
    ( 1, 1, 3, 7 ) 0.5, 0.5;
    ( 2, 0, 1, 3 ) 0.8, 0.2;
    ( 2, 0, 1, 6 ) 0.5, 0.5;
    ( 2, 0, 1, 7 ) 0.5, 0.5;
    ( 2, 0, 2, 3 ) 0.5, 0.5;
    ( 2, 0, 2, 6 ) 0.0, 1.0;
    ( 2, 0, 2, 7 ) 0.0, 1.0;
    ( 2, 0, 3, 3 ) 0.0, 1.0;
    ( 2, 0, 3, 6 ) 0.5, 0.5;
    ( 2, 0, 3, 7 ) 0.0, 1.0;
    ( 2, 1, 1, 3 ) 0.6666666666666666, 0.3333333333333333;
    ( 2, 1, 1, 6 ) 0.0, 1.0;
    ( 2, 1, 1, 7 ) 0.0, 1.0;
    ( 2, 1, 2, 3 ) 0.0, 1.0;
    ( 2, 1, 2, 6 ) 0.0, 1.0;
    ( 2, 1, 2, 7 ) 0.0, 1.0;
    ( 2, 1, 3, 3 ) 0.5, 0.5;
    ( 2, 1, 3, 6 ) 0.5, 0.5;
    ( 2, 1, 3, 7 ) 0.5, 0.5;
    ( 3, 0, 1, 3 ) 0.5, 0.5;
    ( 3, 0, 1, 6 ) 0.5, 0.5;
    ( 3, 0, 1, 7 ) 0.5, 0.5;
    ( 3, 0, 2, 3 ) 0.0, 1.0;
    ( 3, 0, 2, 6 ) 0.5, 0.5;
    ( 3, 0, 2, 7 ) 0.0, 1.0;
    ( 3, 0, 3, 3 ) 0.5, 0.5;
    ( 3, 0, 3, 6 ) 0.5, 0.5;
    ( 3, 0, 3, 7 ) 0.0, 1.0;
    ( 3, 1, 1, 3 ) 0.3333333333333333, 0.6666666666666666;
    ( 3, 1, 1, 6 ) 0.5, 0.5;
    ( 3, 1, 1, 7 ) 0.5, 0.5;
    ( 3, 1, 2, 3 ) 0.0, 1.0;
    ( 3, 1, 2, 6 ) 0.0, 1.0;
    ( 3, 1, 2, 7 ) 0.14285714285714285, 0.8571428571428571;
    ( 3, 1, 3, 3 ) 0.5, 0.5;
    ( 3, 1, 3, 6 ) 0.0, 1.0;
    ( 3, 1, 3, 7 ) 0.5, 0.5;

}
probability ( oldpeak | exang, heartdis, slope, thal ) {
    ( 0, 0, 1, 3 ) 0.7, 0.15, 0.075, 0.075, 0.0;
    ( 0, 0, 1, 6 ) 0.0, 0.0, 0.0, 0.0, 1.0;
    ( 0, 0, 1, 7 ) 0.75, 0.08333333333333333, 0.08333333333333333, 0.08333333333333333, 0.0;
    ( 0, 0, 2, 3 ) 0.41379310344827586, 0.13793103448275862, 0.20689655172413793, 0.13793103448275862, 0.10344827586206896;
    ( 0, 0, 2, 6 ) 1.0, 0.0, 0.0, 0.0, 0.0;
    ( 0, 0, 2, 7 ) 0.25, 0.25, 0.125, 0.375, 0.0;
    ( 0, 0, 3, 3 ) 0.2, 0.2, 0.2, 0.0, 0.4;
    ( 0, 0, 3, 6 ) 0.0, 0.0, 0.0, 0.0, 1.0;
    ( 0, 0, 3, 7 ) 0.0, 0.5, 0.0, 0.0, 0.5;
    ( 0, 1, 1, 3 ) 0.8333333333333334, 0.16666666666666666, 0.0, 0.0, 0.0;
    ( 0, 1, 1, 6 ) 0.0, 1.0, 0.0, 0.0, 0.0;
    ( 0, 1, 1, 7 ) 0.7, 0.1, 0.1, 0.0, 0.1;
    ( 0, 1, 2, 3 ) 0.1111111111111111, 0.0, 0.2222222222222222, 0.2222222222222222, 0.4444444444444444;
    ( 0, 1, 2, 6 ) 0.0, 0.0, 0.3333333333333333, 0.0, 0.6666666666666666;
    ( 0, 1, 2, 7 ) 0.125, 0.125, 0.375, 0.0, 0.375;
    ( 0, 1, 3, 3 ) 0.0, 0.0, 0.0, 0.0, 1.0;
    ( 0, 1, 3, 6 ) 0.0, 0.0, 0.0, 0.0, 1.0;
    ( 0, 1, 3, 7 ) 0.0, 0.0, 0.5, 0.0, 0.5;
    ( 1, 0, 1, 3 ) 0.7777777777777778, 0.1111111111111111, 0.1111111111111111, 0.0, 0.0;
    ( 1, 0, 1, 6 ) 0.2, 0.2, 0.2, 0.2, 0.2;
    ( 1, 0, 1, 7 ) 0.75, 0.0, 0.25, 0.0, 0.0;
    ( 1, 0, 2, 3 ) 0.3333333333333333, 0.0, 0.3333333333333333, 0.16666666666666666, 0.16666666666666666;
    ( 1, 0, 2, 6 ) 0.0, 0.0, 0.0, 1.0, 0.0;
    ( 1, 0, 2, 7 ) 0.5, 0.5, 0.0, 0.0, 0.0;
    ( 1, 0, 3, 3 ) 0.0, 0.0, 1.0, 0.0, 0.0;
    ( 1, 0, 3, 6 ) 0.2, 0.2, 0.2, 0.2, 0.2;
    ( 1, 0, 3, 7 ) 0.2, 0.2, 0.2, 0.2, 0.2;
    ( 1, 1, 1, 3 ) 1.0, 0.0, 0.0, 0.0, 0.0;
    ( 1, 1, 1, 6 ) 0.2, 0.2, 0.2, 0.2, 0.2;
    ( 1, 1, 1, 7 ) 0.36363636363636365, 0.09090909090909091, 0.18181818181818182, 0.2727272727272727, 0.09090909090909091;
    ( 1, 1, 2, 3 ) 0.23076923076923078, 0.07692307692307693, 0.3076923076923077, 0.15384615384615385, 0.23076923076923078;
    ( 1, 1, 2, 6 ) 0.16666666666666666, 0.3333333333333333, 0.0, 0.16666666666666666, 0.3333333333333333;
    ( 1, 1, 2, 7 ) 0.08333333333333333, 0.05555555555555555, 0.19444444444444445, 0.16666666666666666, 0.5;
    ( 1, 1, 3, 3 ) 0.0, 0.0, 0.0, 0.0, 1.0;
    ( 1, 1, 3, 6 ) 0.0, 0.0, 0.0, 0.0, 1.0;
    ( 1, 1, 3, 7 ) 0.0, 0.0, 0.0, 0.16666666666666666, 0.8333333333333334;

}
probability ( sex ) {
    table 0.3201320132013201, 0.6798679867986799 ;
}
probability ( slope ) {
    table 0.46864686468646866, 0.46204620462046203, 0.06930693069306931 ;
}
probability ( thal | sex ) {
    ( 0 ) 0.8350515463917526, 0.010309278350515464, 0.15463917525773196;
    ( 1 ) 0.4223300970873786, 0.0825242718446602, 0.49514563106796117;

}
probability ( thalach | age, exang, slope ) {
    ( 1, 0, 1 ) 0.1, 0.9;
    ( 1, 0, 2 ) 0.5714285714285714, 0.42857142857142855;
    ( 1, 0, 3 ) 0.0, 1.0;
    ( 1, 1, 1 ) 0.0, 1.0;
    ( 1, 1, 2 ) 0.9230769230769231, 0.07692307692307693;
    ( 1, 1, 3 ) 0.5, 0.5;
    ( 2, 0, 1 ) 0.21212121212121213, 0.7878787878787878;
    ( 2, 0, 2 ) 0.3125, 0.6875;
    ( 2, 0, 3 ) 0.6666666666666666, 0.3333333333333333;
    ( 2, 1, 1 ) 0.375, 0.625;
    ( 2, 1, 2 ) 0.9285714285714286, 0.07142857142857142;
    ( 2, 1, 3 ) 0.5, 0.5;
    ( 3, 0, 1 ) 0.18181818181818182, 0.8181818181818182;
    ( 3, 0, 2 ) 0.47368421052631576, 0.5263157894736842;
    ( 3, 0, 3 ) 0.6666666666666666, 0.3333333333333333;
    ( 3, 1, 1 ) 0.2857142857142857, 0.7142857142857143;
    ( 3, 1, 2 ) 0.9473684210526315, 0.05263157894736842;
    ( 3, 1, 3 ) 1.0, 0.0;
    ( 4, 0, 1 ) 0.5238095238095238, 0.47619047619047616;
    ( 4, 0, 2 ) 0.7777777777777778, 0.2222222222222222;
    ( 4, 0, 3 ) 0.75, 0.25;
    ( 4, 1, 1 ) 0.7142857142857143, 0.2857142857142857;
    ( 4, 1, 2 ) 0.8333333333333334, 0.16666666666666666;
    ( 4, 1, 3 ) 1.0, 0.0;

}
probability ( trestbps | age ) {
    ( 1 ) 0.72, 0.28;
    ( 2 ) 0.631578947368421, 0.3684210526315789;
    ( 3 ) 0.4794520547945205, 0.5205479452054794;
    ( 4 ) 0.43037974683544306, 0.569620253164557;

}
